,0,1,2,3,4,5,6,7,8,9,10,11,12,13,14,15,16,17,18,19,20,21,22,23,24,25
0,-0.053762447,-0.34954122,-0.33698943,-2.529497,-0.024215877,0.42911956,2.4469426,-0.076680206,0.10308369,-0.20696434,0.09897557,-0.0058855196,0.13318269,0.2652908,0.67764634,0.021920713,0.00606566,0.044331033,-3.6694207,0.27576733,-0.5191571,-0.03570105,-0.41810787,0.18928252,0.19632101,0.3128223
1,-0.061860386,-0.16185552,0.0017914197,-0.0040230057,0.061824452,-0.37906757,-0.2050872,-0.17020124,-0.1598257,4.507616,-9.143375,0.10607184,0.34630477,-0.055330005,-0.3660077,0.037463132,0.063572295,0.8361121,-0.05625017,0.42739943,1.089266,4.507875,-0.644462,0.00037116214,-0.8080339,1.4952655
2,0.084950544,-0.43963602,0.017292399,0.053637717,0.08525465,2.6061556,-0.079113774,-0.23284665,1.4545867,-0.015219446,-0.10855867,-9.191882,0.31614912,1.1649835,0.24053687,2.4764977,0.044198573,-0.097067535,-0.063797615,0.23260698,1.8004782,-0.021715127,1.2176245,0.017253896,-0.05360468,0.042769235
3,-8.73479,-0.00350523,-3.8425894,0.17796183,-0.010679451,-0.56817555,-0.041485716,-0.19301397,0.3192325,2.1426075,-0.101481766,-0.124837406,0.012047299,-0.031159166,-2.0490196,-0.70791847,-0.021612126,0.14824769,-0.16074666,-0.10011653,0.007982314,-0.053924046,-0.084864706,0.027871491,1.2347097,-0.54091966
4,-0.04116355,-0.037608385,-0.0030279416,0.13183583,-7.3476634,-0.071632884,0.13469495,-2.057156,0.33551595,-0.17339768,-0.0059686988,0.026528334,-5.074587,-0.09964918,-0.73855865,-0.002529036,3.830648,2.2479713,0.065009505,1.0285724,-0.0438503,-0.01833273,-0.013986235,-1.5617809,-0.49149272,0.36689395
